digraph Tree {
node [shape=box, style="filled, rounded", color="black", fontname="helvetica"] ;
edge [fontname="helvetica"] ;
0 [label="PAY_0 <= 1.5\ngini = 0.35\nsamples = 14291\nvalue = [17404, 5096]\nclass = LIMIT_BAL", fillcolor="#eda673"] ;
1 [label="PAY_2 <= 1.5\ngini = 0.28\nsamples = 12832\nvalue = [16755, 3482]\nclass = LIMIT_BAL", fillcolor="#ea9b62"] ;
0 -> 1 [labeldistance=2.5, labelangle=45, headlabel="True"] ;
2 [label="gini = 0.25\nsamples = 11805\nvalue = [15842, 2780]\nclass = LIMIT_BAL", fillcolor="#ea975c"] ;
1 -> 2 ;
3 [label="gini = 0.49\nsamples = 1027\nvalue = [913, 702]\nclass = LIMIT_BAL", fillcolor="#f9e2d1"] ;
1 -> 3 ;
4 [label="BILL_AMT2 <= 995.0\ngini = 0.41\nsamples = 1459\nvalue = [649, 1614]\nclass = AGE", fillcolor="#89c4ef"] ;
0 -> 4 [labeldistance=2.5, labelangle=-45, headlabel="False"] ;
5 [label="gini = 0.5\nsamples = 88\nvalue = [62, 72]\nclass = AGE", fillcolor="#e4f1fb"] ;
4 -> 5 ;
6 [label="gini = 0.4\nsamples = 1371\nvalue = [587, 1542]\nclass = AGE", fillcolor="#84c2ef"] ;
4 -> 6 ;
}